tree
version=v4
num_class=1
num_tree_per_iteration=1
label_index=0
max_feature_idx=34
objective=binary sigmoid:1
feature_names=step amount oldbalanceOrg newbalanceOrig oldbalanceDest newbalanceDest errorBalanceOrig errorBalanceDest absErrorBalanceOrig absErrorBalanceDest totalBalanceError hasBalanceErrorOrig hasBalanceErrorDest origBalanceZero destBalanceZero newOrigBalanceZero newDestBalanceZero log_amount amount_to_orig_balance_ratio amount_to_dest_balance_ratio drains_origin_account is_large_transaction is_round_amount type_CASH_IN type_CASH_OUT type_DEBIT type_PAYMENT type_TRANSFER can_be_fraud hour day is_night is_morning is_afternoon is_evening
feature_infos=[1:355] [0.77999997138977051:62785416] [0:35892440] [0:36149844] [0:355553408] [0:355381440] [-0.25:62785416] [-44707848:10000000] [0:62785416] [0:44707848] [0:62785416] [0:1] [0:1] [0:1] [0:1] [0:1] [0:1] [0.57661336660385132:17.955232620239258] [0:854054.375] [0:251832.984375] [0:1] [0:1] [0:1] [0:1] [0:1] [0:1] [0:1] [0:1] [0:1] [0:23] [0:14] [0:1] [0:1] [0:1] [0:1]
tree_sizes=3500 3541

Tree=0
num_leaves=31
num_cat=0
split_feature=8 15 22 22 6 30 28 31 14 2 8 30 7 10 8 3 28 3 6 5 5 14 2 10 1 12 30 10 1 3
split_gain=1.76104e+09 7.64222e+08 4.99886e+07 1.6792e+06 1.56158e+06 750977 1.06e+06 1.50164e+06 731894 7.53312e+06 782602 599009 337362 1.10477e+06 329626 172817 30226.5 1.13389e+06 501189 101116 442672 35075.1 4.60773e-10 5.75255e-11 8.90697e-10 9.77707e-12 1.05417e-09 4.23597e-10 1.13687e-13 5.68434e-14
threshold=1.0000000180025095e-35 1.0000000180025095e-35 1.0000000180025095e-35 1.0000000180025095e-35 491912.92187500006 1.5000000000000002 1.0000000180025095e-35 1.0000000180025095e-35 1.0000000180025095e-35 1.0000000180025095e-35 1389550.6875000002 1.0000000180025095e-35 -228716.45312499997 238719.73437500003 127169.96875000001 298233.46875000006 1.0000000180025095e-35 533427.31250000012 532148.62500000012 41754.419921875007 37057.300781250007 1.0000000180025095e-35 102.50000000000001 0.016601562500000003 347.38000488281256 1.0000000180025095e-35 3.5000000000000004 0.063476562500000014 269024.82812500006 23043478.000000004
decision_type=2 2 2 2 2 2 2 2 2 2 2 2 2 2 2 2 2 2 2 2 2 2 2 2 2 2 2 2 2 2
left_child=1 2 12 5 -5 6 29 8 10 -10 -8 14 13 15 -9 -1 23 19 -19 20 -18 -21 -14 24 -7 26 -25 -27 -24 -2
right_child=3 -3 -4 4 -6 16 7 11 9 -11 -12 -13 22 -15 -16 -17 17 18 -20 21 -22 -23 28 25 -26 27 -28 -29 -30 -31
leaf_value=-7.208321330017526 -7.2083213301368216 57.126841118989169 57.126841118989169 57.126841118989169 -7.208321330136787 -7.2083108917766996 -4.6683086839040548 -7.208321330136787 52.32306668791977 -7.208321330136787 13.206006420949411 -7.208321330136787 -7.2083297306128538 -7.208321330136787 48.106499229055174 55.754569274543009 -7.2083213501788972 -7.208321330136787 57.126841118989113 -7.0607243438832858 14.515201055087534 -6.1555723204156276 -7.208321330136787 -7.2083121936489398 -7.208321330136787 -7.2083249669911726 -7.208321330136787 -7.208321330136787 -7.208321330136787 -7.208321330136787
leaf_weight=0.12201726244529609 256.91084338864312 3109.1578359603882 31.950241088867188 1.9968900680541983 1.7875140358228236 0.021761040436102941 227.60363496746868 0.30465456610545505 6.4740761738503343 29.656412214331795 6.2931411941535762 0.82225645647849877 0.016320780327076956 3.7094802143401466 2.3225284945801832 1.0202060744632033 11.333616167132275 0.43444362870650255 0.99844503402709961 870.41239921160741 2.9569386732764533 122.03312065365026 573.27362642873777 0.031864380638580214 0.33574176672846079 0.080049541604238494 3.4328041287953965 1057.5717987743556 7.3047149663907467 2.2235120245604767
leaf_count=157 330568 3114 32 2 2300 28 281305 392 628 38159 5530 1058 21 4773 421 29 14583 559 1 1117395 2521 154453 737633 41 432 103 4417 1360781 9399 2861
internal_value=24.9874 47.0369 -3.77494 -6.54281 26.739 -6.59121 -4.91684 -2.74554 -3.1643 3.45887 -4.18739 30.0355 -7.0986 6.03138 41.6921 49.0286 -7.0221 -6.82603 37.6208 -6.88929 -2.71339 -6.94943 -7.20832 -7.20832 -7.20832 -7.20832 -7.20832 -7.20832 -7.20832 -7.20832
internal_weight=6332.59 3726.55 617.397 2606.04 3.7844 2602.25 532.611 273.477 270.027 36.1305 233.897 3.44944 585.446 4.8517 2.62718 1.14222 2069.64 1008.17 1.43289 1006.74 14.2906 992.446 580.595 1061.47 0.357503 1061.12 3.46467 1057.65 580.578 259.134
internal_count=4073696 755158 752044 3318538 2302 3316236 660922 327493 325622 38787 286835 1871 752012 4959 813 186 2655314 1289512 560 1288952 17104 1271848 747053 1365802 460 1365342 4458 1360884 747032 333429
is_linear=0
shrinkage=1


Tree=1
num_leaves=31
num_cat=0
split_feature=8 0 2 29 5 19 19 3 4 19 5 19 29 19 19 4 19 0 28 6 1 0 17 1 29 0 0 5 13 4
split_gain=751511 3.34425e+07 3.10454e+08 4.43727e+08 6.45848e+08 1.3137e+08 4.64874e+07 6.00326e+08 1.12505e+08 9.81497e+06 6.14156e+06 4.7612e+07 1.1554e+08 2.25748e+06 823870 3.96302e+06 138981 54268 395069 1.80642e+07 6.92561e+07 49813.8 44053.7 35914.4 69043.4 53869.8 1.12725e+06 45627.4 296567 626317
threshold=1389550.6875000002 47.500000000000007 1.0000000180025095e-35 1.5000000000000002 3254082.6250000005 0.13686056435108188 1.6474411487579348 678722.93750000012 731319.93750000012 1.4089975953102114 3912905.6250000005 0.29536943137645727 1.0000000180025095e-35 0.1598639786243439 0.98091754317283641 766228.75000000012 0.69062346220016491 5.5000000000000009 1.0000000180025095e-35 122472.67187500001 143055.99218750003 11.500000000000002 11.393045425415041 95822.425781250015 21.500000000000004 230.50000000000003 231.50000000000003 374388.56250000006 1.0000000180025095e-35 1.0000000180025095e-35
decision_type=2 2 2 2 2 2 2 2 2 2 2 2 2 2 2 2 2 2 2 2 2 2 2 2 2 2 2 2 2 2
left_child=17 2 3 -2 9 -6 10 8 -8 -5 14 13 -13 -12 16 -16 -4 18 -1 -20 -21 -7 -19 24 25 -24 -27 28 -25 -30
right_child=1 -3 6 4 5 21 7 -9 -10 -11 11 12 -14 -15 15 -17 -18 22 19 20 -22 -23 23 27 -26 26 -28 -29 29 -31
leaf_value=-0.050037020290203155 -58.859770450341081 -0.050057061148878181 -0.75013227933935478 -4660.6210552800958 -7504.7466836137392 -27570.064130069532 -27181.067807632709 -0.050037020290219891 -7494.5176012353841 -272.24241328242789 -34.666753050873567 -0.050037020290207603 -15636.515828918091 -1103.1175855728254 -0.050037020290216616 -2234.6057993031395 -95.625756475585604 -0.10899287062235347 -0.050037020290220995 -210.45819440332954 -12173.664857032571 -27181.06780763693 -0.061776513773468794 0.039308059116168526 4.1809926799838903 46.526633706971893 -0.052290034419353808 0.04401950823248138 17.996096484929836 1.8345975466248807
leaf_weight=2.5328549043051676 0.017003987974020585 41.712939515593462 0.7141858900315583 0.0017379788793050466 0.0010060331034082992 0.001028287356234614 0.0025109342419682426 0.040661710372660309 0.0010207492015297248 0.0047742791405198659 0.059219725999469119 0.0036965191247873 0.0017363194726840447 0.0053940287342584261 0.011089557374361902 0.002416578799511627 0.040805192329344209 2209.6009826688032 0.3282508982811122 0.0066537344246171398 0.0014786076499149221 0.0041223469862643469 78.696096412762643 688.22459467627914 15.180534648185128 1.3791263624443697 22.33236750121597 2640.8636418879614 6.2711404438596778 136.01636852416772
leaf_count=3426 43 42502 976 164 152 567 1365 55 154 28 121 5 544 126 15 111 133 2149478 475 38 363 2241 34137 509001 2222 322 25060 1265368 1059 33445
internal_value=0.0146463 -6.60011 -306.051 -5336.53 -12420.1 -24030.8 -136.953 -1717.49 -21491.1 -1443.4 -53.6547 -501.857 -4997.42 -123.862 -12.8022 -399.867 -5.8779 0.0632474 -6.81141 -57.7224 -2385.59 -27258.7 0.0666491 0.174786 1.03417 0.5677 2.65687 0.145675 0.46892 2.54689
internal_weight=5844.06 42.6253 0.91241 0.0296729 0.0126689 0.00615667 0.882737 0.0441934 0.00353168 0.00651226 0.838544 0.0700466 0.00543284 0.0646138 0.768497 0.0135061 0.754991 5801.43 2.86924 0.336383 0.00813234 0.00515063 5798.56 3588.96 117.588 102.408 23.7115 3471.38 830.512 142.288
internal_count=4073696 49302 6800 3195 3152 2960 3605 1574 1519 192 2031 796 549 247 1235 126 1109 4024394 4302 876 401 2808 4020092 1870614 61741 59519 25382 1808873 543505 34504
is_linear=0
shrinkage=0.05


end of trees

feature_importances:
amount_to_dest_balance_ratio=7
step=5
newbalanceDest=5
amount=4
newbalanceOrig=4
absErrorBalanceOrig=4
oldbalanceOrg=3
oldbalanceDest=3
errorBalanceOrig=3
totalBalanceError=3
can_be_fraud=3
hour=3
day=3
destBalanceZero=2
is_round_amount=2
errorBalanceDest=1
hasBalanceErrorDest=1
origBalanceZero=1
newOrigBalanceZero=1
log_amount=1
is_night=1

parameters:
[boosting: gbdt]
[objective: binary]
[metric: auc]
[tree_learner: serial]
[device_type: cpu]
[data_sample_strategy: bagging]
[data: ]
[valid: ]
[num_iterations: 500]
[learning_rate: 0.05]
[num_leaves: 31]
[num_threads: -1]
[seed: 42]
[deterministic: 0]
[force_col_wise: 0]
[force_row_wise: 0]
[histogram_pool_size: -1]
[max_depth: 7]
[min_data_in_leaf: 20]
[min_sum_hessian_in_leaf: 0.001]
[bagging_fraction: 0.8]
[pos_bagging_fraction: 1]
[neg_bagging_fraction: 1]
[bagging_freq: 5]
[bagging_seed: 400]
[bagging_by_query: 0]
[feature_fraction: 0.8]
[feature_fraction_bynode: 1]
[feature_fraction_seed: 30056]
[extra_trees: 0]
[extra_seed: 12879]
[early_stopping_round: 0]
[early_stopping_min_delta: 0]
[first_metric_only: 0]
[max_delta_step: 0]
[lambda_l1: 0]
[lambda_l2: 0]
[linear_lambda: 0]
[min_gain_to_split: 0]
[drop_rate: 0.1]
[max_drop: 50]
[skip_drop: 0.5]
[xgboost_dart_mode: 0]
[uniform_drop: 0]
[drop_seed: 17869]
[top_rate: 0.2]
[other_rate: 0.1]
[min_data_per_group: 100]
[max_cat_threshold: 32]
[cat_l2: 10]
[cat_smooth: 10]
[max_cat_to_onehot: 4]
[top_k: 20]
[monotone_constraints: ]
[monotone_constraints_method: basic]
[monotone_penalty: 0]
[feature_contri: ]
[forcedsplits_filename: ]
[refit_decay_rate: 0.9]
[cegb_tradeoff: 1]
[cegb_penalty_split: 0]
[cegb_penalty_feature_lazy: ]
[cegb_penalty_feature_coupled: ]
[path_smooth: 0]
[interaction_constraints: ]
[verbosity: -1]
[saved_feature_importance_type: 0]
[use_quantized_grad: 0]
[num_grad_quant_bins: 4]
[quant_train_renew_leaf: 0]
[stochastic_rounding: 1]
[linear_tree: 0]
[max_bin: 255]
[max_bin_by_feature: ]
[min_data_in_bin: 3]
[bin_construct_sample_cnt: 200000]
[data_random_seed: 175]
[is_enable_sparse: 1]
[enable_bundle: 1]
[use_missing: 1]
[zero_as_missing: 0]
[feature_pre_filter: 1]
[pre_partition: 0]
[two_round: 0]
[header: 0]
[label_column: ]
[weight_column: ]
[group_column: ]
[ignore_column: ]
[categorical_feature: ]
[forcedbins_filename: ]
[precise_float_parser: 0]
[parser_config_file: ]
[objective_seed: 16083]
[num_class: 1]
[is_unbalance: 0]
[scale_pos_weight: 1284.7]
[sigmoid: 1]
[boost_from_average: 1]
[reg_sqrt: 0]
[alpha: 0.9]
[fair_c: 1]
[poisson_max_delta_step: 0.7]
[tweedie_variance_power: 1.5]
[lambdarank_truncation_level: 30]
[lambdarank_norm: 1]
[label_gain: ]
[lambdarank_position_bias_regularization: 0]
[eval_at: ]
[multi_error_top_k: 1]
[auc_mu_weights: ]
[num_machines: 1]
[local_listen_port: 12400]
[time_out: 120]
[machine_list_filename: ]
[machines: ]
[gpu_platform_id: -1]
[gpu_device_id: -1]
[gpu_use_dp: 0]
[num_gpu: 1]

end of parameters

pandas_categorical:[]
